digraph Tree {
node [shape=box] ;
0 [label="Title_Mr <= 0.5\ngini = 0.473\nsamples = 891\nvalue = [549, 342]"] ;
1 [label="Pclass <= 0.75\ngini = 0.422\nsamples = 374\nvalue = [113, 261]"] ;
0 -> 1 [labeldistance=2.5, labelangle=45, headlabel="True"] ;
2 [label="Title_Others <= 0.5\ngini = 0.209\nsamples = 202\nvalue = [24, 178]"] ;
1 -> 2 ;
3 [label="Fare <= 0.056\ngini = 0.096\nsamples = 179\nvalue = [9, 170]"] ;
2 -> 3 ;
4 [label="Fare <= 0.055\ngini = 0.171\nsamples = 74\nvalue = [7, 67]"] ;
3 -> 4 ;
5 [label="Fare <= 0.051\ngini = 0.151\nsamples = 73\nvalue = [6, 67]"] ;
4 -> 5 ;
6 [label="Embarked_S <= 0.5\ngini = 0.172\nsamples = 63\nvalue = [6, 57]"] ;
5 -> 6 ;
7 [label="gini = 0.0\nsamples = 6\nvalue = [0, 6]"] ;
6 -> 7 ;
8 [label="AgeGroup_1.0 <= 0.5\ngini = 0.188\nsamples = 57\nvalue = [6, 51]"] ;
6 -> 8 ;
9 [label="Deck <= 0.357\ngini = 0.145\nsamples = 38\nvalue = [3, 35]"] ;
8 -> 9 ;
10 [label="AgeGroup_2.0 <= 0.5\ngini = 0.111\nsamples = 34\nvalue = [2, 32]"] ;
9 -> 10 ;
11 [label="gini = 0.0\nsamples = 18\nvalue = [0, 18]"] ;
10 -> 11 ;
12 [label="Fare <= 0.048\ngini = 0.219\nsamples = 16\nvalue = [2, 14]"] ;
10 -> 12 ;
13 [label="Title_Mrs <= 0.5\ngini = 0.153\nsamples = 12\nvalue = [1, 11]"] ;
12 -> 13 ;
14 [label="Fare <= 0.033\ngini = 0.32\nsamples = 5\nvalue = [1, 4]"] ;
13 -> 14 ;
15 [label="gini = 0.375\nsamples = 4\nvalue = [1, 3]"] ;
14 -> 15 ;
16 [label="gini = 0.0\nsamples = 1\nvalue = [0, 1]"] ;
14 -> 16 ;
17 [label="gini = 0.0\nsamples = 7\nvalue = [0, 7]"] ;
13 -> 17 ;
18 [label="gini = 0.375\nsamples = 4\nvalue = [1, 3]"] ;
12 -> 18 ;
19 [label="Fare <= 0.023\ngini = 0.375\nsamples = 4\nvalue = [1, 3]"] ;
9 -> 19 ;
20 [label="gini = 0.0\nsamples = 1\nvalue = [1, 0]"] ;
19 -> 20 ;
21 [label="gini = 0.0\nsamples = 3\nvalue = [0, 3]"] ;
19 -> 21 ;
22 [label="Fare <= 0.025\ngini = 0.266\nsamples = 19\nvalue = [3, 16]"] ;
8 -> 22 ;
23 [label="gini = 0.0\nsamples = 4\nvalue = [0, 4]"] ;
22 -> 23 ;
24 [label="Fare <= 0.039\ngini = 0.32\nsamples = 15\nvalue = [3, 12]"] ;
22 -> 24 ;
25 [label="Title_Mrs <= 0.5\ngini = 0.245\nsamples = 7\nvalue = [1, 6]"] ;
24 -> 25 ;
26 [label="Deck <= 0.143\ngini = 0.32\nsamples = 5\nvalue = [1, 4]"] ;
25 -> 26 ;
27 [label="gini = 0.375\nsamples = 4\nvalue = [1, 3]"] ;
26 -> 27 ;
28 [label="gini = 0.0\nsamples = 1\nvalue = [0, 1]"] ;
26 -> 28 ;
29 [label="gini = 0.0\nsamples = 2\nvalue = [0, 2]"] ;
25 -> 29 ;
30 [label="Fare <= 0.046\ngini = 0.375\nsamples = 8\nvalue = [2, 6]"] ;
24 -> 30 ;
31 [label="gini = 0.5\nsamples = 2\nvalue = [1, 1]"] ;
30 -> 31 ;
32 [label="gini = 0.278\nsamples = 6\nvalue = [1, 5]"] ;
30 -> 32 ;
33 [label="gini = 0.0\nsamples = 10\nvalue = [0, 10]"] ;
5 -> 33 ;
34 [label="gini = 0.0\nsamples = 1\nvalue = [1, 0]"] ;
4 -> 34 ;
35 [label="Fare <= 0.291\ngini = 0.037\nsamples = 105\nvalue = [2, 103]"] ;
3 -> 35 ;
36 [label="gini = 0.0\nsamples = 85\nvalue = [0, 85]"] ;
35 -> 36 ;
37 [label="Fare <= 0.298\ngini = 0.18\nsamples = 20\nvalue = [2, 18]"] ;
35 -> 37 ;
38 [label="Sex_male <= 0.5\ngini = 0.5\nsamples = 4\nvalue = [2, 2]"] ;
37 -> 38 ;
39 [label="IsAlone <= 0.5\ngini = 0.444\nsamples = 3\nvalue = [2, 1]"] ;
38 -> 39 ;
40 [label="gini = 0.0\nsamples = 2\nvalue = [2, 0]"] ;
39 -> 40 ;
41 [label="gini = 0.0\nsamples = 1\nvalue = [0, 1]"] ;
39 -> 41 ;
42 [label="gini = 0.0\nsamples = 1\nvalue = [0, 1]"] ;
38 -> 42 ;
43 [label="gini = 0.0\nsamples = 16\nvalue = [0, 16]"] ;
37 -> 43 ;
44 [label="Deck <= 0.286\ngini = 0.454\nsamples = 23\nvalue = [15, 8]"] ;
2 -> 44 ;
45 [label="Fare <= 0.169\ngini = 0.142\nsamples = 13\nvalue = [12, 1]"] ;
44 -> 45 ;
46 [label="gini = 0.0\nsamples = 12\nvalue = [12, 0]"] ;
45 -> 46 ;
47 [label="gini = 0.0\nsamples = 1\nvalue = [0, 1]"] ;
45 -> 47 ;
48 [label="AgeGroup_3.0 <= 0.5\ngini = 0.42\nsamples = 10\nvalue = [3, 7]"] ;
44 -> 48 ;
49 [label="IsAlone <= 0.5\ngini = 0.48\nsamples = 5\nvalue = [3, 2]"] ;
48 -> 49 ;
50 [label="gini = 0.0\nsamples = 2\nvalue = [2, 0]"] ;
49 -> 50 ;
51 [label="Fare <= 0.056\ngini = 0.444\nsamples = 3\nvalue = [1, 2]"] ;
49 -> 51 ;
52 [label="gini = 0.0\nsamples = 1\nvalue = [1, 0]"] ;
51 -> 52 ;
53 [label="gini = 0.0\nsamples = 2\nvalue = [0, 2]"] ;
51 -> 53 ;
54 [label="gini = 0.0\nsamples = 5\nvalue = [0, 5]"] ;
48 -> 54 ;
55 [label="Fare <= 0.046\ngini = 0.499\nsamples = 172\nvalue = [89, 83]"] ;
1 -> 55 ;
56 [label="Embarked_S <= 0.5\ngini = 0.473\nsamples = 128\nvalue = [49, 79]"] ;
55 -> 56 ;
57 [label="AgeGroup_2.0 <= 0.5\ngini = 0.4\nsamples = 58\nvalue = [16, 42]"] ;
56 -> 57 ;
58 [label="Fare <= 0.03\ngini = 0.361\nsamples = 55\nvalue = [13, 42]"] ;
57 -> 58 ;
59 [label="Fare <= 0.027\ngini = 0.416\nsamples = 44\nvalue = [13, 31]"] ;
58 -> 59 ;
60 [label="Fare <= 0.014\ngini = 0.298\nsamples = 33\nvalue = [6, 27]"] ;
59 -> 60 ;
61 [label="gini = 0.0\nsamples = 1\nvalue = [1, 0]"] ;
60 -> 61 ;
62 [label="AgeGroup_1.0 <= 0.5\ngini = 0.264\nsamples = 32\nvalue = [5, 27]"] ;
60 -> 62 ;
63 [label="gini = 0.0\nsamples = 10\nvalue = [0, 10]"] ;
62 -> 63 ;
64 [label="IsAlone <= 0.5\ngini = 0.351\nsamples = 22\nvalue = [5, 17]"] ;
62 -> 64 ;
65 [label="gini = 0.0\nsamples = 1\nvalue = [1, 0]"] ;
64 -> 65 ;
66 [label="Fare <= 0.016\ngini = 0.308\nsamples = 21\nvalue = [4, 17]"] ;
64 -> 66 ;
67 [label="Fare <= 0.015\ngini = 0.255\nsamples = 20\nvalue = [3, 17]"] ;
66 -> 67 ;
68 [label="Embarked_Q <= 0.5\ngini = 0.32\nsamples = 15\nvalue = [3, 12]"] ;
67 -> 68 ;
69 [label="gini = 0.0\nsamples = 2\nvalue = [0, 2]"] ;
68 -> 69 ;
70 [label="Fare <= 0.015\ngini = 0.355\nsamples = 13\nvalue = [3, 10]"] ;
68 -> 70 ;
71 [label="gini = 0.0\nsamples = 1\nvalue = [1, 0]"] ;
70 -> 71 ;
72 [label="Fare <= 0.015\ngini = 0.278\nsamples = 12\nvalue = [2, 10]"] ;
70 -> 72 ;
73 [label="gini = 0.0\nsamples = 2\nvalue = [0, 2]"] ;
72 -> 73 ;
74 [label="gini = 0.32\nsamples = 10\nvalue = [2, 8]"] ;
72 -> 74 ;
75 [label="gini = 0.0\nsamples = 5\nvalue = [0, 5]"] ;
67 -> 75 ;
76 [label="gini = 0.0\nsamples = 1\nvalue = [1, 0]"] ;
66 -> 76 ;
77 [label="Title_Miss <= 0.5\ngini = 0.463\nsamples = 11\nvalue = [7, 4]"] ;
59 -> 77 ;
78 [label="Sex_male <= 0.5\ngini = 0.444\nsamples = 6\nvalue = [2, 4]"] ;
77 -> 78 ;
79 [label="Fare <= 0.028\ngini = 0.5\nsamples = 4\nvalue = [2, 2]"] ;
78 -> 79 ;
80 [label="gini = 0.0\nsamples = 1\nvalue = [0, 1]"] ;
79 -> 80 ;
81 [label="Fare <= 0.029\ngini = 0.444\nsamples = 3\nvalue = [2, 1]"] ;
79 -> 81 ;
82 [label="gini = 0.0\nsamples = 1\nvalue = [1, 0]"] ;
81 -> 82 ;
83 [label="gini = 0.5\nsamples = 2\nvalue = [1, 1]"] ;
81 -> 83 ;
84 [label="gini = 0.0\nsamples = 2\nvalue = [0, 2]"] ;
78 -> 84 ;
85 [label="gini = 0.0\nsamples = 5\nvalue = [5, 0]"] ;
77 -> 85 ;
86 [label="gini = 0.0\nsamples = 11\nvalue = [0, 11]"] ;
58 -> 86 ;
87 [label="gini = 0.0\nsamples = 3\nvalue = [3, 0]"] ;
57 -> 87 ;
88 [label="Fare <= 0.021\ngini = 0.498\nsamples = 70\nvalue = [33, 37]"] ;
56 -> 88 ;
89 [label="Fare <= 0.016\ngini = 0.482\nsamples = 37\nvalue = [22, 15]"] ;
88 -> 89 ;
90 [label="AgeGroup_2.0 <= 0.5\ngini = 0.495\nsamples = 20\nvalue = [9, 11]"] ;
89 -> 90 ;
91 [label="Fare <= 0.015\ngini = 0.475\nsamples = 18\nvalue = [7, 11]"] ;
90 -> 91 ;
92 [label="Fare <= 0.015\ngini = 0.278\nsamples = 6\nvalue = [1, 5]"] ;
91 -> 92 ;
93 [label="gini = 0.0\nsamples = 2\nvalue = [0, 2]"] ;
92 -> 93 ;
94 [label="Fare <= 0.015\ngini = 0.375\nsamples = 4\nvalue = [1, 3]"] ;
92 -> 94 ;
95 [label="gini = 0.5\nsamples = 2\nvalue = [1, 1]"] ;
94 -> 95 ;
96 [label="gini = 0.0\nsamples = 2\nvalue = [0, 2]"] ;
94 -> 96 ;
97 [label="IsAlone <= 0.5\ngini = 0.5\nsamples = 12\nvalue = [6, 6]"] ;
91 -> 97 ;
98 [label="AgeGroup_1.0 <= 0.5\ngini = 0.444\nsamples = 3\nvalue = [1, 2]"] ;
97 -> 98 ;
99 [label="gini = 0.0\nsamples = 2\nvalue = [0, 2]"] ;
98 -> 99 ;
100 [label="gini = 0.0\nsamples = 1\nvalue = [1, 0]"] ;
98 -> 100 ;
101 [label="AgeGroup_1.0 <= 0.5\ngini = 0.494\nsamples = 9\nvalue = [5, 4]"] ;
97 -> 101 ;
102 [label="gini = 0.0\nsamples = 2\nvalue = [2, 0]"] ;
101 -> 102 ;
103 [label="Fare <= 0.015\ngini = 0.49\nsamples = 7\nvalue = [3, 4]"] ;
101 -> 103 ;
104 [label="Fare <= 0.015\ngini = 0.444\nsamples = 3\nvalue = [1, 2]"] ;
103 -> 104 ;
105 [label="gini = 0.5\nsamples = 2\nvalue = [1, 1]"] ;
104 -> 105 ;
106 [label="gini = 0.0\nsamples = 1\nvalue = [0, 1]"] ;
104 -> 106 ;
107 [label="Fare <= 0.015\ngini = 0.5\nsamples = 4\nvalue = [2, 2]"] ;
103 -> 107 ;
108 [label="gini = 0.0\nsamples = 1\nvalue = [1, 0]"] ;
107 -> 108 ;
109 [label="gini = 0.444\nsamples = 3\nvalue = [1, 2]"] ;
107 -> 109 ;
110 [label="gini = 0.0\nsamples = 2\nvalue = [2, 0]"] ;
90 -> 110 ;
111 [label="AgeGroup_1.0 <= 0.5\ngini = 0.36\nsamples = 17\nvalue = [13, 4]"] ;
89 -> 111 ;
112 [label="Fare <= 0.018\ngini = 0.49\nsamples = 7\nvalue = [3, 4]"] ;
111 -> 112 ;
113 [label="gini = 0.0\nsamples = 2\nvalue = [0, 2]"] ;
112 -> 113 ;
114 [label="IsAlone <= 0.5\ngini = 0.48\nsamples = 5\nvalue = [3, 2]"] ;
112 -> 114 ;
115 [label="gini = 0.0\nsamples = 2\nvalue = [2, 0]"] ;
114 -> 115 ;
116 [label="AgeGroup_2.0 <= 0.5\ngini = 0.444\nsamples = 3\nvalue = [1, 2]"] ;
114 -> 116 ;
117 [label="gini = 0.0\nsamples = 2\nvalue = [0, 2]"] ;
116 -> 117 ;
118 [label="gini = 0.0\nsamples = 1\nvalue = [1, 0]"] ;
116 -> 118 ;
119 [label="gini = 0.0\nsamples = 10\nvalue = [10, 0]"] ;
111 -> 119 ;
120 [label="Fare <= 0.034\ngini = 0.444\nsamples = 33\nvalue = [11, 22]"] ;
88 -> 120 ;
121 [label="AgeGroup_3.0 <= 0.5\ngini = 0.255\nsamples = 20\nvalue = [3, 17]"] ;
120 -> 121 ;
122 [label="AgeGroup_1.0 <= 0.5\ngini = 0.188\nsamples = 19\nvalue = [2, 17]"] ;
121 -> 122 ;
123 [label="gini = 0.0\nsamples = 10\nvalue = [0, 10]"] ;
122 -> 123 ;
124 [label="Fare <= 0.026\ngini = 0.346\nsamples = 9\nvalue = [2, 7]"] ;
122 -> 124 ;
125 [label="gini = 0.0\nsamples = 3\nvalue = [0, 3]"] ;
124 -> 125 ;
126 [label="Fare <= 0.03\ngini = 0.444\nsamples = 6\nvalue = [2, 4]"] ;
124 -> 126 ;
127 [label="gini = 0.0\nsamples = 1\nvalue = [1, 0]"] ;
126 -> 127 ;
128 [label="Fare <= 0.031\ngini = 0.32\nsamples = 5\nvalue = [1, 4]"] ;
126 -> 128 ;
129 [label="gini = 0.0\nsamples = 1\nvalue = [0, 1]"] ;
128 -> 129 ;
130 [label="Deck <= 0.071\ngini = 0.375\nsamples = 4\nvalue = [1, 3]"] ;
128 -> 130 ;
131 [label="gini = 0.444\nsamples = 3\nvalue = [1, 2]"] ;
130 -> 131 ;
132 [label="gini = 0.0\nsamples = 1\nvalue = [0, 1]"] ;
130 -> 132 ;
133 [label="gini = 0.0\nsamples = 1\nvalue = [1, 0]"] ;
121 -> 133 ;
134 [label="Fare <= 0.039\ngini = 0.473\nsamples = 13\nvalue = [8, 5]"] ;
120 -> 134 ;
135 [label="gini = 0.0\nsamples = 4\nvalue = [4, 0]"] ;
134 -> 135 ;
136 [label="Fare <= 0.041\ngini = 0.494\nsamples = 9\nvalue = [4, 5]"] ;
134 -> 136 ;
137 [label="gini = 0.0\nsamples = 4\nvalue = [0, 4]"] ;
136 -> 137 ;
138 [label="Fare <= 0.042\ngini = 0.32\nsamples = 5\nvalue = [4, 1]"] ;
136 -> 138 ;
139 [label="gini = 0.0\nsamples = 4\nvalue = [4, 0]"] ;
138 -> 139 ;
140 [label="gini = 0.0\nsamples = 1\nvalue = [0, 1]"] ;
138 -> 140 ;
141 [label="Fare <= 0.064\ngini = 0.165\nsamples = 44\nvalue = [40, 4]"] ;
55 -> 141 ;
142 [label="Fare <= 0.061\ngini = 0.245\nsamples = 28\nvalue = [24, 4]"] ;
141 -> 142 ;
143 [label="Fare <= 0.048\ngini = 0.08\nsamples = 24\nvalue = [23, 1]"] ;
142 -> 143 ;
144 [label="Embarked_Q <= 0.5\ngini = 0.375\nsamples = 4\nvalue = [3, 1]"] ;
143 -> 144 ;
145 [label="gini = 0.0\nsamples = 3\nvalue = [3, 0]"] ;
144 -> 145 ;
146 [label="gini = 0.0\nsamples = 1\nvalue = [0, 1]"] ;
144 -> 146 ;
147 [label="gini = 0.0\nsamples = 20\nvalue = [20, 0]"] ;
143 -> 147 ;
148 [label="Sex_male <= 0.5\ngini = 0.375\nsamples = 4\nvalue = [1, 3]"] ;
142 -> 148 ;
149 [label="gini = 0.0\nsamples = 2\nvalue = [0, 2]"] ;
148 -> 149 ;
150 [label="gini = 0.5\nsamples = 2\nvalue = [1, 1]"] ;
148 -> 150 ;
151 [label="gini = 0.0\nsamples = 16\nvalue = [16, 0]"] ;
141 -> 151 ;
152 [label="Deck <= 0.357\ngini = 0.264\nsamples = 517\nvalue = [436, 81]"] ;
0 -> 152 [labeldistance=2.5, labelangle=-45, headlabel="False"] ;
153 [label="Fare <= 0.052\ngini = 0.195\nsamples = 430\nvalue = [383, 47]"] ;
152 -> 153 ;
154 [label="Fare <= 0.027\ngini = 0.175\nsamples = 381\nvalue = [344, 37]"] ;
153 -> 154 ;
155 [label="Fare <= 0.027\ngini = 0.188\nsamples = 315\nvalue = [282, 33]"] ;
154 -> 155 ;
156 [label="Fare <= 0.015\ngini = 0.183\nsamples = 314\nvalue = [282, 32]"] ;
155 -> 156 ;
157 [label="AgeGroup_1.0 <= 0.5\ngini = 0.147\nsamples = 175\nvalue = [161, 14]"] ;
156 -> 157 ;
158 [label="Fare <= 0.015\ngini = 0.036\nsamples = 55\nvalue = [54, 1]"] ;
157 -> 158 ;
159 [label="gini = 0.0\nsamples = 42\nvalue = [42, 0]"] ;
158 -> 159 ;
160 [label="Fare <= 0.015\ngini = 0.142\nsamples = 13\nvalue = [12, 1]"] ;
158 -> 160 ;
161 [label="AgeGroup_2.0 <= 0.5\ngini = 0.444\nsamples = 3\nvalue = [2, 1]"] ;
160 -> 161 ;
162 [label="gini = 0.0\nsamples = 2\nvalue = [2, 0]"] ;
161 -> 162 ;
163 [label="gini = 0.0\nsamples = 1\nvalue = [0, 1]"] ;
161 -> 163 ;
164 [label="gini = 0.0\nsamples = 10\nvalue = [10, 0]"] ;
160 -> 164 ;
165 [label="Fare <= 0.015\ngini = 0.193\nsamples = 120\nvalue = [107, 13]"] ;
157 -> 165 ;
166 [label="Fare <= 0.015\ngini = 0.247\nsamples = 83\nvalue = [71, 12]"] ;
165 -> 166 ;
167 [label="Fare <= 0.014\ngini = 0.2\nsamples = 71\nvalue = [63, 8]"] ;
166 -> 167 ;
168 [label="Pclass <= 0.75\ngini = 0.266\nsamples = 38\nvalue = [32, 6]"] ;
167 -> 168 ;
169 [label="gini = 0.0\nsamples = 6\nvalue = [6, 0]"] ;
168 -> 169 ;
170 [label="Fare <= 0.004\ngini = 0.305\nsamples = 32\nvalue = [26, 6]"] ;
168 -> 170 ;
171 [label="gini = 0.0\nsamples = 1\nvalue = [0, 1]"] ;
170 -> 171 ;
172 [label="Fare <= 0.014\ngini = 0.271\nsamples = 31\nvalue = [26, 5]"] ;
170 -> 172 ;
173 [label="gini = 0.0\nsamples = 3\nvalue = [3, 0]"] ;
172 -> 173 ;
174 [label="Fare <= 0.014\ngini = 0.293\nsamples = 28\nvalue = [23, 5]"] ;
172 -> 174 ;
175 [label="gini = 0.0\nsamples = 1\nvalue = [0, 1]"] ;
174 -> 175 ;
176 [label="Fare <= 0.014\ngini = 0.252\nsamples = 27\nvalue = [23, 4]"] ;
174 -> 176 ;
177 [label="gini = 0.0\nsamples = 7\nvalue = [7, 0]"] ;
176 -> 177 ;
178 [label="Embarked_S <= 0.5\ngini = 0.32\nsamples = 20\nvalue = [16, 4]"] ;
176 -> 178 ;
179 [label="Fare <= 0.014\ngini = 0.266\nsamples = 19\nvalue = [16, 3]"] ;
178 -> 179 ;
180 [label="gini = 0.219\nsamples = 8\nvalue = [7, 1]"] ;
179 -> 180 ;
181 [label="gini = 0.298\nsamples = 11\nvalue = [9, 2]"] ;
179 -> 181 ;
182 [label="gini = 0.0\nsamples = 1\nvalue = [0, 1]"] ;
178 -> 182 ;
183 [label="Fare <= 0.015\ngini = 0.114\nsamples = 33\nvalue = [31, 2]"] ;
167 -> 183 ;
184 [label="gini = 0.0\nsamples = 21\nvalue = [21, 0]"] ;
183 -> 184 ;
185 [label="IsAlone <= 0.5\ngini = 0.278\nsamples = 12\nvalue = [10, 2]"] ;
183 -> 185 ;
186 [label="gini = 0.0\nsamples = 1\nvalue = [1, 0]"] ;
185 -> 186 ;
187 [label="Deck <= 0.143\ngini = 0.298\nsamples = 11\nvalue = [9, 2]"] ;
185 -> 187 ;
188 [label="gini = 0.32\nsamples = 10\nvalue = [8, 2]"] ;
187 -> 188 ;
189 [label="gini = 0.0\nsamples = 1\nvalue = [1, 0]"] ;
187 -> 189 ;
190 [label="IsAlone <= 0.5\ngini = 0.444\nsamples = 12\nvalue = [8, 4]"] ;
166 -> 190 ;
191 [label="gini = 0.5\nsamples = 2\nvalue = [1, 1]"] ;
190 -> 191 ;
192 [label="Fare <= 0.015\ngini = 0.42\nsamples = 10\nvalue = [7, 3]"] ;
190 -> 192 ;
193 [label="gini = 0.32\nsamples = 5\nvalue = [4, 1]"] ;
192 -> 193 ;
194 [label="gini = 0.48\nsamples = 5\nvalue = [3, 2]"] ;
192 -> 194 ;
195 [label="Embarked_S <= 0.5\ngini = 0.053\nsamples = 37\nvalue = [36, 1]"] ;
165 -> 195 ;
196 [label="Embarked_Q <= 0.5\ngini = 0.375\nsamples = 4\nvalue = [3, 1]"] ;
195 -> 196 ;
197 [label="gini = 0.444\nsamples = 3\nvalue = [2, 1]"] ;
196 -> 197 ;
198 [label="gini = 0.0\nsamples = 1\nvalue = [1, 0]"] ;
196 -> 198 ;
199 [label="gini = 0.0\nsamples = 33\nvalue = [33, 0]"] ;
195 -> 199 ;
200 [label="Fare <= 0.016\ngini = 0.225\nsamples = 139\nvalue = [121, 18]"] ;
156 -> 200 ;
201 [label="AgeGroup_2.0 <= 0.5\ngini = 0.473\nsamples = 13\nvalue = [8, 5]"] ;
200 -> 201 ;
202 [label="IsAlone <= 0.5\ngini = 0.32\nsamples = 5\nvalue = [4, 1]"] ;
201 -> 202 ;
203 [label="gini = 0.5\nsamples = 2\nvalue = [1, 1]"] ;
202 -> 203 ;
204 [label="gini = 0.0\nsamples = 3\nvalue = [3, 0]"] ;
202 -> 204 ;
205 [label="IsAlone <= 0.5\ngini = 0.5\nsamples = 8\nvalue = [4, 4]"] ;
201 -> 205 ;
206 [label="gini = 0.0\nsamples = 1\nvalue = [1, 0]"] ;
205 -> 206 ;
207 [label="gini = 0.49\nsamples = 7\nvalue = [3, 4]"] ;
205 -> 207 ;
208 [label="AgeGroup_1.0 <= 0.5\ngini = 0.185\nsamples = 126\nvalue = [113, 13]"] ;
200 -> 208 ;
209 [label="Fare <= 0.016\ngini = 0.231\nsamples = 60\nvalue = [52, 8]"] ;
208 -> 209 ;
210 [label="AgeGroup_2.0 <= 0.5\ngini = 0.36\nsamples = 17\nvalue = [13, 4]"] ;
209 -> 210 ;
211 [label="AgeGroup_3.0 <= 0.5\ngini = 0.469\nsamples = 8\nvalue = [5, 3]"] ;
210 -> 211 ;
212 [label="gini = 0.48\nsamples = 5\nvalue = [2, 3]"] ;
211 -> 212 ;
213 [label="gini = 0.0\nsamples = 3\nvalue = [3, 0]"] ;
211 -> 213 ;
214 [label="gini = 0.198\nsamples = 9\nvalue = [8, 1]"] ;
210 -> 214 ;
215 [label="Fare <= 0.02\ngini = 0.169\nsamples = 43\nvalue = [39, 4]"] ;
209 -> 215 ;
216 [label="gini = 0.0\nsamples = 16\nvalue = [16, 0]"] ;
215 -> 216 ;
217 [label="Fare <= 0.026\ngini = 0.252\nsamples = 27\nvalue = [23, 4]"] ;
215 -> 217 ;
218 [label="AgeGroup_4.0 <= 0.5\ngini = 0.269\nsamples = 25\nvalue = [21, 4]"] ;
217 -> 218 ;
219 [label="Fare <= 0.021\ngini = 0.287\nsamples = 23\nvalue = [19, 4]"] ;
218 -> 219 ;
220 [label="AgeGroup_3.0 <= 0.5\ngini = 0.375\nsamples = 8\nvalue = [6, 2]"] ;
219 -> 220 ;
221 [label="AgeGroup_2.0 <= 0.5\ngini = 0.245\nsamples = 7\nvalue = [6, 1]"] ;
220 -> 221 ;
222 [label="gini = 0.444\nsamples = 3\nvalue = [2, 1]"] ;
221 -> 222 ;
223 [label="gini = 0.0\nsamples = 4\nvalue = [4, 0]"] ;
221 -> 223 ;
224 [label="gini = 0.0\nsamples = 1\nvalue = [0, 1]"] ;
220 -> 224 ;
225 [label="AgeGroup_2.0 <= 0.5\ngini = 0.231\nsamples = 15\nvalue = [13, 2]"] ;
219 -> 225 ;
226 [label="gini = 0.0\nsamples = 7\nvalue = [7, 0]"] ;
225 -> 226 ;
227 [label="Fare <= 0.025\ngini = 0.375\nsamples = 8\nvalue = [6, 2]"] ;
225 -> 227 ;
228 [label="gini = 0.0\nsamples = 1\nvalue = [1, 0]"] ;
227 -> 228 ;
229 [label="gini = 0.408\nsamples = 7\nvalue = [5, 2]"] ;
227 -> 229 ;
230 [label="gini = 0.0\nsamples = 2\nvalue = [2, 0]"] ;
218 -> 230 ;
231 [label="gini = 0.0\nsamples = 2\nvalue = [2, 0]"] ;
217 -> 231 ;
232 [label="Fare <= 0.016\ngini = 0.14\nsamples = 66\nvalue = [61, 5]"] ;
208 -> 232 ;
233 [label="gini = 0.0\nsamples = 23\nvalue = [23, 0]"] ;
232 -> 233 ;
234 [label="Fare <= 0.016\ngini = 0.206\nsamples = 43\nvalue = [38, 5]"] ;
232 -> 234 ;
235 [label="gini = 0.0\nsamples = 1\nvalue = [0, 1]"] ;
234 -> 235 ;
236 [label="Fare <= 0.019\ngini = 0.172\nsamples = 42\nvalue = [38, 4]"] ;
234 -> 236 ;
237 [label="Fare <= 0.019\ngini = 0.255\nsamples = 20\nvalue = [17, 3]"] ;
236 -> 237 ;
238 [label="Fare <= 0.017\ngini = 0.142\nsamples = 13\nvalue = [12, 1]"] ;
237 -> 238 ;
239 [label="Fare <= 0.017\ngini = 0.245\nsamples = 7\nvalue = [6, 1]"] ;
238 -> 239 ;
240 [label="gini = 0.0\nsamples = 2\nvalue = [2, 0]"] ;
239 -> 240 ;
241 [label="IsAlone <= 0.5\ngini = 0.32\nsamples = 5\nvalue = [4, 1]"] ;
239 -> 241 ;
242 [label="gini = 0.0\nsamples = 1\nvalue = [1, 0]"] ;
241 -> 242 ;
243 [label="gini = 0.375\nsamples = 4\nvalue = [3, 1]"] ;
241 -> 243 ;
244 [label="gini = 0.0\nsamples = 6\nvalue = [6, 0]"] ;
238 -> 244 ;
245 [label="gini = 0.408\nsamples = 7\nvalue = [5, 2]"] ;
237 -> 245 ;
246 [label="Fare <= 0.024\ngini = 0.087\nsamples = 22\nvalue = [21, 1]"] ;
236 -> 246 ;
247 [label="gini = 0.0\nsamples = 8\nvalue = [8, 0]"] ;
246 -> 247 ;
248 [label="Fare <= 0.026\ngini = 0.133\nsamples = 14\nvalue = [13, 1]"] ;
246 -> 248 ;
249 [label="gini = 0.142\nsamples = 13\nvalue = [12, 1]"] ;
248 -> 249 ;
250 [label="gini = 0.0\nsamples = 1\nvalue = [1, 0]"] ;
248 -> 250 ;
251 [label="gini = 0.0\nsamples = 1\nvalue = [0, 1]"] ;
155 -> 251 ;
252 [label="Embarked_S <= 0.5\ngini = 0.114\nsamples = 66\nvalue = [62, 4]"] ;
154 -> 252 ;
253 [label="Fare <= 0.03\ngini = 0.291\nsamples = 17\nvalue = [14, 3]"] ;
252 -> 253 ;
254 [label="gini = 0.0\nsamples = 9\nvalue = [9, 0]"] ;
253 -> 254 ;
255 [label="Fare <= 0.046\ngini = 0.469\nsamples = 8\nvalue = [5, 3]"] ;
253 -> 255 ;
256 [label="AgeGroup_1.0 <= 0.5\ngini = 0.48\nsamples = 5\nvalue = [2, 3]"] ;
255 -> 256 ;
257 [label="gini = 0.0\nsamples = 1\nvalue = [1, 0]"] ;
256 -> 257 ;
258 [label="Fare <= 0.039\ngini = 0.375\nsamples = 4\nvalue = [1, 3]"] ;
256 -> 258 ;
259 [label="gini = 0.0\nsamples = 2\nvalue = [0, 2]"] ;
258 -> 259 ;
260 [label="Fare <= 0.044\ngini = 0.5\nsamples = 2\nvalue = [1, 1]"] ;
258 -> 260 ;
261 [label="gini = 0.0\nsamples = 1\nvalue = [1, 0]"] ;
260 -> 261 ;
262 [label="gini = 0.0\nsamples = 1\nvalue = [0, 1]"] ;
260 -> 262 ;
263 [label="gini = 0.0\nsamples = 3\nvalue = [3, 0]"] ;
255 -> 263 ;
264 [label="Fare <= 0.051\ngini = 0.04\nsamples = 49\nvalue = [48, 1]"] ;
252 -> 264 ;
265 [label="gini = 0.0\nsamples = 34\nvalue = [34, 0]"] ;
264 -> 265 ;
266 [label="IsAlone <= 0.5\ngini = 0.124\nsamples = 15\nvalue = [14, 1]"] ;
264 -> 266 ;
267 [label="Fare <= 0.051\ngini = 0.219\nsamples = 8\nvalue = [7, 1]"] ;
266 -> 267 ;
268 [label="Deck <= 0.143\ngini = 0.278\nsamples = 6\nvalue = [5, 1]"] ;
267 -> 268 ;
269 [label="AgeGroup_1.0 <= 0.5\ngini = 0.32\nsamples = 5\nvalue = [4, 1]"] ;
268 -> 269 ;
270 [label="gini = 0.375\nsamples = 4\nvalue = [3, 1]"] ;
269 -> 270 ;
271 [label="gini = 0.0\nsamples = 1\nvalue = [1, 0]"] ;
269 -> 271 ;
272 [label="gini = 0.0\nsamples = 1\nvalue = [1, 0]"] ;
268 -> 272 ;
273 [label="gini = 0.0\nsamples = 2\nvalue = [2, 0]"] ;
267 -> 273 ;
274 [label="gini = 0.0\nsamples = 7\nvalue = [7, 0]"] ;
266 -> 274 ;
275 [label="IsAlone <= 0.5\ngini = 0.325\nsamples = 49\nvalue = [39, 10]"] ;
153 -> 275 ;
276 [label="gini = 0.0\nsamples = 23\nvalue = [23, 0]"] ;
275 -> 276 ;
277 [label="Pclass <= 0.75\ngini = 0.473\nsamples = 26\nvalue = [16, 10]"] ;
275 -> 277 ;
278 [label="Fare <= 0.06\ngini = 0.388\nsamples = 19\nvalue = [14, 5]"] ;
277 -> 278 ;
279 [label="AgeGroup_3.0 <= 0.5\ngini = 0.494\nsamples = 9\nvalue = [4, 5]"] ;
278 -> 279 ;
280 [label="Embarked_S <= 0.5\ngini = 0.408\nsamples = 7\nvalue = [2, 5]"] ;
279 -> 280 ;
281 [label="Fare <= 0.053\ngini = 0.444\nsamples = 3\nvalue = [2, 1]"] ;
280 -> 281 ;
282 [label="gini = 0.0\nsamples = 1\nvalue = [0, 1]"] ;
281 -> 282 ;
283 [label="gini = 0.0\nsamples = 2\nvalue = [2, 0]"] ;
281 -> 283 ;
284 [label="gini = 0.0\nsamples = 4\nvalue = [0, 4]"] ;
280 -> 284 ;
285 [label="gini = 0.0\nsamples = 2\nvalue = [2, 0]"] ;
279 -> 285 ;
286 [label="gini = 0.0\nsamples = 10\nvalue = [10, 0]"] ;
278 -> 286 ;
287 [label="AgeGroup_2.0 <= 0.5\ngini = 0.408\nsamples = 7\nvalue = [2, 5]"] ;
277 -> 287 ;
288 [label="gini = 0.48\nsamples = 5\nvalue = [2, 3]"] ;
287 -> 288 ;
289 [label="gini = 0.0\nsamples = 2\nvalue = [0, 2]"] ;
287 -> 289 ;
290 [label="AgeGroup_3.0 <= 0.5\ngini = 0.476\nsamples = 87\nvalue = [53, 34]"] ;
152 -> 290 ;
291 [label="Deck <= 0.643\ngini = 0.497\nsamples = 61\nvalue = [33, 28]"] ;
290 -> 291 ;
292 [label="AgeGroup_2.0 <= 0.5\ngini = 0.401\nsamples = 18\nvalue = [5, 13]"] ;
291 -> 292 ;
293 [label="Embarked_S <= 0.5\ngini = 0.5\nsamples = 8\nvalue = [4, 4]"] ;
292 -> 293 ;
294 [label="gini = 0.0\nsamples = 3\nvalue = [0, 3]"] ;
293 -> 294 ;
295 [label="Deck <= 0.5\ngini = 0.32\nsamples = 5\nvalue = [4, 1]"] ;
293 -> 295 ;
296 [label="AgeGroup_1.0 <= 0.5\ngini = 0.5\nsamples = 2\nvalue = [1, 1]"] ;
295 -> 296 ;
297 [label="gini = 0.0\nsamples = 1\nvalue = [1, 0]"] ;
296 -> 297 ;
298 [label="gini = 0.0\nsamples = 1\nvalue = [0, 1]"] ;
296 -> 298 ;
299 [label="gini = 0.0\nsamples = 3\nvalue = [3, 0]"] ;
295 -> 299 ;
300 [label="Embarked_S <= 0.5\ngini = 0.18\nsamples = 10\nvalue = [1, 9]"] ;
292 -> 300 ;
301 [label="gini = 0.0\nsamples = 1\nvalue = [1, 0]"] ;
300 -> 301 ;
302 [label="gini = 0.0\nsamples = 9\nvalue = [0, 9]"] ;
300 -> 302 ;
303 [label="Fare <= 0.757\ngini = 0.454\nsamples = 43\nvalue = [28, 15]"] ;
291 -> 303 ;
304 [label="Fare <= 0.267\ngini = 0.433\nsamples = 41\nvalue = [28, 13]"] ;
303 -> 304 ;
305 [label="Fare <= 0.169\ngini = 0.467\nsamples = 35\nvalue = [22, 13]"] ;
304 -> 305 ;
306 [label="Fare <= 0.074\ngini = 0.42\nsamples = 30\nvalue = [21, 9]"] ;
305 -> 306 ;
307 [label="Fare <= 0.056\ngini = 0.494\nsamples = 18\nvalue = [10, 8]"] ;
306 -> 307 ;
308 [label="AgeGroup_1.0 <= 0.5\ngini = 0.219\nsamples = 8\nvalue = [7, 1]"] ;
307 -> 308 ;
309 [label="gini = 0.0\nsamples = 6\nvalue = [6, 0]"] ;
308 -> 309 ;
310 [label="Embarked_S <= 0.5\ngini = 0.5\nsamples = 2\nvalue = [1, 1]"] ;
308 -> 310 ;
311 [label="gini = 0.0\nsamples = 1\nvalue = [1, 0]"] ;
310 -> 311 ;
312 [label="gini = 0.0\nsamples = 1\nvalue = [0, 1]"] ;
310 -> 312 ;
313 [label="IsAlone <= 0.5\ngini = 0.42\nsamples = 10\nvalue = [3, 7]"] ;
307 -> 313 ;
314 [label="gini = 0.0\nsamples = 1\nvalue = [1, 0]"] ;
313 -> 314 ;
315 [label="Fare <= 0.064\ngini = 0.346\nsamples = 9\nvalue = [2, 7]"] ;
313 -> 315 ;
316 [label="gini = 0.0\nsamples = 5\nvalue = [0, 5]"] ;
315 -> 316 ;
317 [label="Fare <= 0.069\ngini = 0.5\nsamples = 4\nvalue = [2, 2]"] ;
315 -> 317 ;
318 [label="gini = 0.0\nsamples = 2\nvalue = [2, 0]"] ;
317 -> 318 ;
319 [label="gini = 0.0\nsamples = 2\nvalue = [0, 2]"] ;
317 -> 319 ;
320 [label="Fare <= 0.107\ngini = 0.153\nsamples = 12\nvalue = [11, 1]"] ;
306 -> 320 ;
321 [label="gini = 0.0\nsamples = 6\nvalue = [6, 0]"] ;
320 -> 321 ;
322 [label="Fare <= 0.116\ngini = 0.278\nsamples = 6\nvalue = [5, 1]"] ;
320 -> 322 ;
323 [label="gini = 0.0\nsamples = 1\nvalue = [0, 1]"] ;
322 -> 323 ;
324 [label="gini = 0.0\nsamples = 5\nvalue = [5, 0]"] ;
322 -> 324 ;
325 [label="AgeGroup_2.0 <= 0.5\ngini = 0.32\nsamples = 5\nvalue = [1, 4]"] ;
305 -> 325 ;
326 [label="AgeGroup_1.0 <= 0.5\ngini = 0.444\nsamples = 3\nvalue = [1, 2]"] ;
325 -> 326 ;
327 [label="Fare <= 0.214\ngini = 0.5\nsamples = 2\nvalue = [1, 1]"] ;
326 -> 327 ;
328 [label="gini = 0.0\nsamples = 1\nvalue = [1, 0]"] ;
327 -> 328 ;
329 [label="gini = 0.0\nsamples = 1\nvalue = [0, 1]"] ;
327 -> 329 ;
330 [label="gini = 0.0\nsamples = 1\nvalue = [0, 1]"] ;
326 -> 330 ;
331 [label="gini = 0.0\nsamples = 2\nvalue = [0, 2]"] ;
325 -> 331 ;
332 [label="gini = 0.0\nsamples = 6\nvalue = [6, 0]"] ;
304 -> 332 ;
333 [label="gini = 0.0\nsamples = 2\nvalue = [0, 2]"] ;
303 -> 333 ;
334 [label="Fare <= 0.054\ngini = 0.355\nsamples = 26\nvalue = [20, 6]"] ;
290 -> 334 ;
335 [label="Fare <= 0.051\ngini = 0.5\nsamples = 4\nvalue = [2, 2]"] ;
334 -> 335 ;
336 [label="gini = 0.0\nsamples = 1\nvalue = [1, 0]"] ;
335 -> 336 ;
337 [label="Deck <= 0.571\ngini = 0.444\nsamples = 3\nvalue = [1, 2]"] ;
335 -> 337 ;
338 [label="gini = 0.0\nsamples = 2\nvalue = [0, 2]"] ;
337 -> 338 ;
339 [label="gini = 0.0\nsamples = 1\nvalue = [1, 0]"] ;
337 -> 339 ;
340 [label="IsAlone <= 0.5\ngini = 0.298\nsamples = 22\nvalue = [18, 4]"] ;
334 -> 340 ;
341 [label="Fare <= 0.191\ngini = 0.463\nsamples = 11\nvalue = [7, 4]"] ;
340 -> 341 ;
342 [label="Deck <= 0.5\ngini = 0.5\nsamples = 8\nvalue = [4, 4]"] ;
341 -> 342 ;
343 [label="gini = 0.0\nsamples = 3\nvalue = [3, 0]"] ;
342 -> 343 ;
344 [label="Embarked_S <= 0.5\ngini = 0.32\nsamples = 5\nvalue = [1, 4]"] ;
342 -> 344 ;
345 [label="gini = 0.0\nsamples = 3\nvalue = [0, 3]"] ;
344 -> 345 ;
346 [label="Deck <= 0.643\ngini = 0.5\nsamples = 2\nvalue = [1, 1]"] ;
344 -> 346 ;
347 [label="gini = 0.0\nsamples = 1\nvalue = [1, 0]"] ;
346 -> 347 ;
348 [label="gini = 0.0\nsamples = 1\nvalue = [0, 1]"] ;
346 -> 348 ;
349 [label="gini = 0.0\nsamples = 3\nvalue = [3, 0]"] ;
341 -> 349 ;
350 [label="gini = 0.0\nsamples = 11\nvalue = [11, 0]"] ;
340 -> 350 ;
}